<?xml version="1.0"?>
<opencv_storage>
<cascade>
  <stageType>BOOST</stageType>
  <featureType>HAAR</featureType>
  <height>24</height>
  <width>24</width>
  <stageParams>
    <boostType>GAB</boostType>
    <minHitRate>9.9500000476837158e-01</minHitRate>
    <maxFalseAlarm>5.0000000000000000e-01</maxFalseAlarm>
    <weightTrimRate>9.4999999999999996e-01</weightTrimRate>
    <maxDepth>1</maxDepth>
    <maxWeakCount>100</maxWeakCount></stageParams>
  <featureParams>
    <maxCatCount>0</maxCatCount>
    <featSize>1</featSize>
    <mode>BASIC</mode></featureParams>
  <stageNum>25</stageNum>
  <stages>
    <!-- stage 0 -->
    <_>
      <maxWeakCount>2</maxWeakCount>
      <stageThreshold>1.9781279563903809e-01</stageThreshold>
      <weakClassifiers>
        <_>
          <internalNodes>
            0 -1 47 1.7921222373843193e-02</internalNodes>
          <leafValues>
            -6.3829785585403442e-01 8.2031250000000000e-01</leafValues></_>
        <_>
          <internalNodes>
            0 -1 126 7.8265979886054993e-02</internalNodes>
          <leafValues>
            -6.2249970436096191e-01 8.8225132226943970e-01</leafValues></_></weakClassifiers></_>
    <!-- stage 1 -->
    <_>
      <maxWeakCount>4</maxWeakCount>
      <stageThreshold>-2.2706323862075806e-01</stageThreshold>
      <weakClassifiers>
        <_>
          <internalNodes>
            0 -1 82 -1.2095362693071365e-01</internalNodes>
          <leafValues>
            -8.7500000000000000e-01 7.2027969360351563e-01</leafValues></_>
        <_>
          <internalNodes>
            0 -1 80 6.4000852406024933e-02</internalNodes>
          <leafValues>
            -6.7701256275177002e-01 5.9627878665924072e-01</leafValues></_>
        <_>
          <internalNodes>
            0 -1 38 -3.5317309200763702e-02</internalNodes>
          <leafValues>
            8.1829982995986938e-01 -4.0701633691787720e-01</leafValues></_>
        <_>
          <internalNodes>
            0 -1 150 3.1895055435597897e-03</internalNodes>
          <leafValues>
            -7.4068117141723633e-01 4.5867431163787842e-01</leafValues></_></weakClassifiers></_>
    <!-- stage 2 -->
    <_>
      <maxWeakCount>4</maxWeakCount>
      <stageThreshold>-2.3818808794021606e-01</stageThreshold>
      <weakClassifiers>
        <_>
          <internalNodes>
            0 -1 51 -2.7793949842453003e-01</internalNodes>
          <leafValues>
            -8.9285713434219360e-01 6.8027210235595703e-01</leafValues></_>
        <_>
          <internalNodes>
            0 -1 33 -8.2060601562261581e-03</internalNodes>
          <leafValues>
            3.9809459447860718e-01 -8.7194818258285522e-01</leafValues></_>
        <_>
          <internalNodes>
            0 -1 115 -1.1511938273906708e-01</internalNodes>
          <leafValues>
            -5.5278116464614868e-01 6.7816072702407837e-01</leafValues></_>
        <_>
          <internalNodes>
            0 -1 156 1.6981424763798714e-02</internalNodes>
          <leafValues>
            -3.1603875756263733e-01 8.0935561656951904e-01</leafValues></_></weakClassifiers></_>
    <!-- stage 3 -->
    <_>
      <maxWeakCount>7</maxWeakCount>
      <stageThreshold>-2.8179982304573059e-01</stageThreshold>
      <weakClassifiers>
        <_>
          <internalNodes>
            0 -1 17 8.5535824298858643e-02</internalNodes>
          <leafValues>
            -3.5779815912246704e-01 7.8423237800598145e-01</leafValues></_>
        <_>
          <internalNodes>
            0 -1 0 3.8563974201679230e-02</internalNodes>
          <leafValues>
            4.1085320711135864e-01 -8.7553840875625610e-01</leafValues></_>
        <_>
          <internalNodes>
            0 -1 131 5.2330218255519867e-02</internalNodes>
          <leafValues>
            -5.6815105676651001e-01 4.3513607978820801e-01</leafValues></_>
        <_>
          <internalNodes>
            0 -1 48 2.5254864245653152e-02</internalNodes>
          <leafValues>
            -5.0001335144042969e-01 4.7905993461608887e-01</leafValues></_>
        <_>
          <internalNodes>
            0 -1 43 3.3056533429771662e-03</internalNodes>
          <leafValues>
            3.1386902928352356e-01 -6.9119375944137573e-01</leafValues></_>
        <_>
          <internalNodes>
            0 -1 158 -4.9126576632261276e-03</internalNodes>
          <leafValues>
            -7.4543845653533936e-01 2.7468419075012207e-01</leafValues></_>
        <_>
          <internalNodes>
            0 -1 192 -8.5298717021942139e-03</internalNodes>
          <leafValues>
            3.3016672730445862e-01 -6.6719466447830200e-01</leafValues></_></weakClassifiers></_>
    <!-- stage 4 -->
    <_>
      <maxWeakCount>6</maxWeakCount>
      <stageThreshold>-6.4815706014633179e-01</stageThreshold>
      <weakClassifiers>
        <_>
          <internalNodes>
            0 -1 89 -5.8407947421073914e-02</internalNodes>
          <leafValues>
            -4.4444444775581360e-01 6.5467625856399536e-01</leafValues></_>
        <_>
          <internalNodes>
            0 -1 49 5.4012658074498177e-03</internalNodes>
          <leafValues>
            -3.4491172432899475e-01 6.1225503683090210e-01</leafValues></_>
        <_>
          <internalNodes>
            0 -1 13 -1.0428187437355518e-02</internalNodes>
          <leafValues>
            3.6815422773361206e-01 -6.1611378192901611e-01</leafValues></_>
        <_>
          <internalNodes>
            0 -1 94 5.7930279523134232e-02</internalNodes>
          <leafValues>
            -4.0424579381942749e-01 4.7965666651725769e-01</leafValues></_>
        <_>
          <internalNodes>
            0 -1 146 4.7297731041908264e-02</internalNodes>
          <leafValues>
            -5.8247917890548706e-01 3.8560584187507629e-01</leafValues></_>
        <_>
          <internalNodes>
            0 -1 162 1.3722800649702549e-03</internalNodes>
          <leafValues>
            -3.1170377135276794e-01 6.4491713047027588e-01</leafValues></_></weakClassifiers></_>
    <!-- stage 5 -->
    <_>
      <maxWeakCount>7</maxWeakCount>
      <stageThreshold>-1.3424268364906311e-01</stageThreshold>
      <weakClassifiers>
        <_>
          <internalNodes>
            0 -1 190 4.1478374041616917e-03</internalNodes>
          <leafValues>
            -4.4999998807907104e-01 6.8888890743255615e-01</leafValues></_>
        <_>
          <internalNodes>
            0 -1 11 -6.1617903411388397e-02</internalNodes>
          <leafValues>
            4.9719667434692383e-01 -4.7030717134475708e-01</leafValues></_>
        <_>
          <internalNodes>
            0 -1 135 4.0009320946410298e-04</internalNodes>
          <leafValues>
            -3.1078609824180603e-01 6.6280001401901245e-01</leafValues></_>
        <_>
          <internalNodes>
            0 -1 128 2.5146892294287682e-02</internalNodes>
          <leafValues>
            -6.4277148246765137e-01 3.5191574692726135e-01</leafValues></_>
        <_>
          <internalNodes>
            0 -1 159 5.3347786888480186e-03</internalNodes>
          <leafValues>
            -6.8197977542877197e-01 3.0241850018501282e-01</leafValues></_>
        <_>
          <internalNodes>
            0 -1 180 1.4924013521522284e-04</internalNodes>
          <leafValues>
            3.2851296663284302e-01 -6.6053092479705811e-01</leafValues></_>
        <_>
          <internalNodes>
            0 -1 20 1.0837907902896404e-03</internalNodes>
          <leafValues>
            2.1862803399562836e-01 -8.4268832206726074e-01</leafValues></_></weakClassifiers></_>
    <!-- stage 6 -->
    <_>
      <maxWeakCount>9</maxWeakCount>
      <stageThreshold>-3.6126166582107544e-01</stageThreshold>
      <weakClassifiers>
        <_>
          <internalNodes>
            0 -1 63 9.1941282153129578e-02</internalNodes>
          <leafValues>
            -2.1818181872367859e-01 7.2500002384185791e-01</leafValues></_>
        <_>
          <internalNodes>
            0 -1 57 2.4498086422681808e-02</internalNodes>
          <leafValues>
            -1.8927490711212158e-01 7.6920562982559204e-01</leafValues></_>
        <_>
          <internalNodes>
            0 -1 73 2.8058777097612619e-03</internalNodes>
          <leafValues>
            -2.3945993185043335e-01 6.3064342737197876e-01</leafValues></_>
        <_>
          <internalNodes>
            0 -1 140 3.7857918068766594e-03</internalNodes>
          <leafValues>
            -3.6223602294921875e-01 4.2895603179931641e-01</leafValues></_>
        <_>
          <internalNodes>
            0 -1 97 -6.3022337853908539e-03</internalNodes>
          <leafValues>
            7.6657390594482422e-01 -2.0625187456607819e-01</leafValues></_>
        <_>
          <internalNodes>
            0 -1 118 9.8600937053561211e-04</internalNodes>
          <leafValues>
            -2.0603628456592560e-01 7.9420614242553711e-01</leafValues></_>
        <_>
          <internalNodes>
            0 -1 177 -4.2149069486185908e-04</internalNodes>
          <leafValues>
            -6.7962956428527832e-01 2.8020343184471130e-01</leafValues></_>
        <_>
          <internalNodes>
            0 -1 27 5.4688064847141504e-04</internalNodes>
          <leafValues>
            -2.8573149442672729e-01 6.5589332580566406e-01</leafValues></_>
        <_>
          <internalNodes>
            0 -1 37 1.4021656243130565e-03</internalNodes>
          <leafValues>
            -7.1651613712310791e-01 2.7451521158218384e-01</leafValues></_></weakClassifiers></_>
    <!-- stage 7 -->
    <_>
      <maxWeakCount>8</maxWeakCount>
      <stageThreshold>-8.4255832433700562e-01</stageThreshold>
      <weakClassifiers>
        <_>
          <internalNodes>
            0 -1 12 -4.9709873273968697e-03</internalNodes>
          <leafValues>
            6.2629759311676025e-01 -5.0819671154022217e-01</leafValues></_>
        <_>
          <internalNodes>
            0 -1 77 -1.5180474147200584e-03</internalNodes>
          <leafValues>
            5.1422274112701416e-01 -3.6009731888771057e-01</leafValues></_>
        <_>
          <internalNodes>
            0 -1 167 2.7760162949562073e-02</internalNodes>
          <leafValues>
            -3.5688889026641846e-01 4.8767244815826416e-01</leafValues></_>
        <_>
          <internalNodes>
            0 -1 175 -2.1715993061661720e-03</internalNodes>
          <leafValues>
            -7.1375882625579834e-01 2.8356903791427612e-01</leafValues></_>
        <_>
          <internalNodes>
            0 -1 123 -9.7993269562721252e-02</internalNodes>
          <leafValues>
            1.9054949283599854e-01 -7.9525423049926758e-01</leafValues></_>
        <_>
          <internalNodes>
            0 -1 4 -6.8300589919090271e-02</internalNodes>
          <leafValues>
            3.8519749045372009e-01 -5.7964009046554565e-01</leafValues></_>
        <_>
          <internalNodes>
            0 -1 102 -4.6814228408038616e-03</internalNodes>
          <leafValues>
            7.8711879253387451e-01 -3.2485714554786682e-01</leafValues></_>
        <_>
          <internalNodes>
            0 -1 90 -1.1037189513444901e-02</internalNodes>
          <leafValues>
            -2.9897263646125793e-01 5.7248848676681519e-01</leafValues></_></weakClassifiers></_>
    <!-- stage 8 -->
    <_>
      <maxWeakCount>6</maxWeakCount>
      <stageThreshold>-7.1502536535263062e-01</stageThreshold>
      <weakClassifiers>
        <_>
          <internalNodes>
            0 -1 132 2.1678488701581955e-02</internalNodes>
          <leafValues>
            -2.5773194432258606e-01 6.9169962406158447e-01</leafValues></_>
        <_>
          <internalNodes>
            0 -1 3 -2.0495516061782837e-01</internalNodes>
          <leafValues>
            -3.8633862137794495e-01 4.8080611228942871e-01</leafValues></_>
        <_>
          <internalNodes>
            0 -1 29 4.8655290156602859e-03</internalNodes>
          <leafValues>
            2.3486775159835815e-01 -7.0729446411132813e-01</leafValues></_>
        <_>
          <internalNodes>
            0 -1 31 -1.2151332572102547e-02</internalNodes>
          <leafValues>
            3.1079435348510742e-01 -6.4102703332901001e-01</leafValues></_>
        <_>
          <internalNodes>
            0 -1 121 -1.1573512107133865e-02</internalNodes>
          <leafValues>
            7.5631988048553467e-01 -2.6245057582855225e-01</leafValues></_>
        <_>
          <internalNodes>
            0 -1 107 -3.5496391355991364e-03</internalNodes>
          <leafValues>
            4.9913710355758667e-01 -4.2111539840698242e-01</leafValues></_></weakClassifiers></_>
    <!-- stage 9 -->
    <_>
      <maxWeakCount>8</maxWeakCount>
      <stageThreshold>-3.0124741792678833e-01</stageThreshold>
      <weakClassifiers>
        <_>
          <internalNodes>
            0 -1 178 9.2294358182698488e-04</internalNodes>
          <leafValues>
            -3.8888889551162720e-01 6.4028775691986084e-01</leafValues></_>
        <_>
          <internalNodes>
            0 -1 85 6.4394380897283554e-03</internalNodes>
          <leafValues>
            -2.1851755678653717e-01 6.9104659557342529e-01</leafValues></_>
        <_>
          <internalNodes>
            0 -1 90 -1.1029301211237907e-02</internalNodes>
          <leafValues>
            -3.1565526127815247e-01 5.6697255373001099e-01</leafValues></_>
        <_>
          <internalNodes>
            0 -1 109 4.6895566629245877e-04</internalNodes>
          <leafValues>
            -2.3836196959018707e-01 7.3168104887008667e-01</leafValues></_>
        <_>
          <internalNodes>
            0 -1 172 -1.6507118940353394e-02</internalNodes>
          <leafValues>
            2.7918428182601929e-01 -6.8306756019592285e-01</leafValues></_>
        <_>
          <internalNodes>
            0 -1 110 -7.3498551500961185e-04</internalNodes>
          <leafValues>
            6.3775593042373657e-01 -3.5110262036323547e-01</leafValues></_>
        <_>
          <internalNodes>
            0 -1 52 2.3945685825310647e-04</internalNodes>
          <leafValues>
            -3.0696454644203186e-01 5.9950381517410278e-01</leafValues></_>
        <_>
          <internalNodes>
            0 -1 143 -1.1366910766810179e-03</internalNodes>
          <leafValues>
            3.5643133521080017e-01 -5.4534626007080078e-01</leafValues></_></weakClassifiers></_>
    <!-- stage 10 -->
    <_>
      <maxWeakCount>8</maxWeakCount>
      <stageThreshold>-5.3469818830490112e-01</stageThreshold>
      <weakClassifiers>
        <_>
          <internalNodes>
            0 -1 189 2.9621372232213616e-04</internalNodes>
          <leafValues>
            5.6634306907653809e-01 -6.0975611209869385e-01</leafValues></_>
        <_>
          <internalNodes>
            0 -1 6 -8.7066374719142914e-02</internalNodes>
          <leafValues>
            4.4627341628074646e-01 -4.0375185012817383e-01</leafValues></_>
        <_>
          <internalNodes>
            0 -1 61 -4.8343781381845474e-03</internalNodes>
          <leafValues>
            7.1614873409271240e-01 -2.2474700212478638e-01</leafValues></_>
        <_>
          <internalNodes>
            0 -1 191 1.1391872540116310e-03</internalNodes>
          <leafValues>
            -7.1801507472991943e-01 2.4044603109359741e-01</leafValues></_>
        <_>
          <internalNodes>
            0 -1 136 2.3982413113117218e-02</internalNodes>
          <leafValues>
            -6.5277302265167236e-01 2.6076936721801758e-01</leafValues></_>
        <_>
          <internalNodes>
            0 -1 184 -1.6581246163696051e-03</internalNodes>
          <leafValues>
            -7.2103786468505859e-01 2.0147328078746796e-01</leafValues></_>
        <_>
          <internalNodes>
            0 -1 2 1.4795900322496891e-02</internalNodes>
          <leafValues>
            2.0707462728023529e-01 -7.3276603221893311e-01</leafValues></_>
        <_>
          <internalNodes>
            0 -1 141 4.2006094008684158e-03</internalNodes>
          <leafValues>
            -3.6032745242118835e-01 4.2868477106094360e-01</leafValues></_></weakClassifiers></_>
    <!-- stage 11 -->
    <_>
      <maxWeakCount>7</maxWeakCount>
      <stageThreshold>-3.6310917139053345e-01</stageThreshold>
      <weakClassifiers>
        <_>
          <internalNodes>
            0 -1 62 1.0200402140617371e-01</internalNodes>
          <leafValues>
            -1.1450381577014923e-01 7.5342464447021484e-01</leafValues></_>
        <_>
          <internalNodes>
            0 -1 18 1.4082447160035372e-03</internalNodes>
          <leafValues>
            3.0401334166526794e-01 -7.7931863069534302e-01</leafValues></_>
        <_>
          <internalNodes>
            0 -1 103 3.6801327951252460e-04</internalNodes>
          <leafValues>
            -2.6201793551445007e-01 6.3141244649887085e-01</leafValues></_>
        <_>
          <internalNodes>
            0 -1 100 1.9473850261420012e-03</internalNodes>
          <leafValues>
            -2.1491749584674835e-01 7.6718598604202271e-01</leafValues></_>
        <_>
          <internalNodes>
            0 -1 72 -5.1823377609252930e-02</internalNodes>
          <leafValues>
            -9.1977208852767944e-01 2.1682845056056976e-01</leafValues></_>
        <_>
          <internalNodes>
            0 -1 71 -1.5984416007995605e-01</internalNodes>
          <leafValues>
            -8.8202691078186035e-01 1.8270769715309143e-01</leafValues></_>
        <_>
          <internalNodes>
            0 -1 139 6.1780936084687710e-04</internalNodes>
          <leafValues>
            -3.2085135579109192e-01 6.6138112545013428e-01</leafValues></_></weakClassifiers></_>
    <!-- stage 12 -->
    <_>
      <maxWeakCount>9</maxWeakCount>
      <stageThreshold>-8.4187472239136696e-03</stageThreshold>
      <weakClassifiers>
        <_>
          <internalNodes>
            0 -1 23 -2.8263989835977554e-02</internalNodes>
          <leafValues>
            -8.5185188055038452e-01 5.3560370206832886e-01</leafValues></_>
        <_>
          <internalNodes>
            0 -1 129 1.8797598779201508e-02</internalNodes>
          <leafValues>
            -4.0681117773056030e-01 4.8187315464019775e-01</leafValues></_>
        <_>
          <internalNodes>
            0 -1 179 3.2758247107267380e-03</internalNodes>
          <leafValues>
            -7.0356440544128418e-01 2.9165121912956238e-01</leafValues></_>
        <_>
          <internalNodes>
            0 -1 87 7.1805308107286692e-04</internalNodes>
          <leafValues>
            2.7643299102783203e-01 -5.7630217075347900e-01</leafValues></_>
        <_>
          <internalNodes>
            0 -1 161 -1.8203842919319868e-03</internalNodes>
          <leafValues>
            7.8353881835937500e-01 -2.2310315072536469e-01</leafValues></_>
        <_>
          <internalNodes>
            0 -1 106 -9.3032065778970718e-03</internalNodes>
          <leafValues>
            6.2621593475341797e-01 -3.6231860518455505e-01</leafValues></_>
        <_>
          <internalNodes>
            0 -1 81 -7.7953170984983444e-03</internalNodes>
          <leafValues>
            9.1758751869201660e-01 -1.6635465621948242e-01</leafValues></_>
        <_>
          <internalNodes>
            0 -1 165 2.2943070507608354e-04</internalNodes>
          <leafValues>
            -1.9343227148056030e-01 7.4870276451110840e-01</leafValues></_>
        <_>
          <internalNodes>
            0 -1 169 -2.0953955754521303e-05</internalNodes>
          <leafValues>
            -5.0611984729766846e-01 3.4644451737403870e-01</leafValues></_></weakClassifiers></_>
    <!-- stage 13 -->
    <_>
      <maxWeakCount>8</maxWeakCount>
      <stageThreshold>-2.6981630921363831e-01</stageThreshold>
      <weakClassifiers>
        <_>
          <internalNodes>
            0 -1 67 -2.3468013107776642e-01</internalNodes>
          <leafValues>
            5.7097792625427246e-01 -9.3939393758773804e-01</leafValues></_>
        <_>
          <internalNodes>
            0 -1 93 -5.2532937377691269e-02</internalNodes>
          <leafValues>
            -2.5879079103469849e-01 7.3080223798751831e-01</leafValues></_>
        <_>
          <internalNodes>
            0 -1 83 8.8132340461015701e-03</internalNodes>
          <leafValues>
            -3.5856521129608154e-01 5.6530785560607910e-01</leafValues></_>
        <_>
          <internalNodes>
            0 -1 134 -1.4532657805830240e-03</internalNodes>
          <leafValues>
            6.4431387186050415e-01 -3.3460170030593872e-01</leafValues></_>
        <_>
          <internalNodes>
            0 -1 25 4.1434068232774734e-02</internalNodes>
          <leafValues>
            2.1767142415046692e-01 -8.4396779537200928e-01</leafValues></_>
        <_>
          <internalNodes>
            0 -1 74 1.9551771692931652e-03</internalNodes>
          <leafValues>
            -2.7117863297462463e-01 7.7401834726333618e-01</leafValues></_>
        <_>
          <internalNodes>
            0 -1 99 1.3471462298184633e-03</internalNodes>
          <leafValues>
            -2.1248322725296021e-01 7.4438107013702393e-01</leafValues></_>
        <_>
          <internalNodes>
            0 -1 182 8.5367669817060232e-04</internalNodes>
          <leafValues>
            3.7715393304824829e-01 -5.2096289396286011e-01</leafValues></_></weakClassifiers></_>
    <!-- stage 14 -->
    <_>
      <maxWeakCount>9</maxWeakCount>
      <stageThreshold>-1.7447988688945770e-01</stageThreshold>
      <weakClassifiers>
        <_>
          <internalNodes>
            0 -1 59 -1.4702296257019043e-01</internalNodes>
          <leafValues>
            -3.3333334326744080e-01 5.8620691299438477e-01</leafValues></_>
        <_>
          <internalNodes>
            0 -1 153 2.8468731790781021e-02</internalNodes>
          <leafValues>
            -3.5791331529617310e-01 4.4061598181724548e-01</leafValues></_>
        <_>
          <internalNodes>
            0 -1 19 7.9664506018161774e-02</internalNodes>
          <leafValues>
            -4.0615004301071167e-01 4.5361727476119995e-01</leafValues></_>
        <_>
          <internalNodes>
            0 -1 70 4.5011553447693586e-04</internalNodes>
          <leafValues>
            -3.5477635264396667e-01 4.8763051629066467e-01</leafValues></_>
        <_>
          <internalNodes>
            0 -1 91 -2.3489303886890411e-02</internalNodes>
          <leafValues>
            -3.8860523700714111e-01 4.6096348762512207e-01</leafValues></_>
        <_>
          <internalNodes>
            0 -1 166 -7.6113326940685511e-04</internalNodes>
          <leafValues>
            5.9042066335678101e-01 -2.7742829918861389e-01</leafValues></_>
        <_>
          <internalNodes>
            0 -1 96 -5.8192445430904627e-04</internalNodes>
          <leafValues>
            6.2751233577728271e-01 -2.5090542435646057e-01</leafValues></_>
        <_>
          <internalNodes>
            0 -1 164 8.9011356234550476e-02</internalNodes>
          <leafValues>
            -1.7970967292785645e-01 8.5070639848709106e-01</leafValues></_>
        <_>
          <internalNodes>
            0 -1 117 7.8674741089344025e-03</internalNodes>
          <leafValues>
            -1.2636169791221619e-01 1.</leafValues></_></weakClassifiers></_>
    <!-- stage 15 -->
    <_>
      <maxWeakCount>9</maxWeakCount>
      <stageThreshold>-2.8662121295928955e-01</stageThreshold>
      <weakClassifiers>
        <_>
          <internalNodes>
            0 -1 176 -1.0300479829311371e-02</internalNodes>
          <leafValues>
            -5.1219511032104492e-01 5.5339807271957397e-01</leafValues></_>
        <_>
          <internalNodes>
            0 -1 14 -9.5947776571847498e-05</internalNodes>
          <leafValues>
            -3.8147196173667908e-01 4.0139740705490112e-01</leafValues></_>
        <_>
          <internalNodes>
            0 -1 92 -2.4466756731271744e-03</internalNodes>
          <leafValues>
            5.2833122014999390e-01 -3.1867232918739319e-01</leafValues></_>
        <_>
          <internalNodes>
            0 -1 78 7.6648145914077759e-03</internalNodes>
          <leafValues>
            -2.0183478295803070e-01 8.9292281866073608e-01</leafValues></_>
        <_>
          <internalNodes>
            0 -1 76 -1.3267990201711655e-02</internalNodes>
          <leafValues>
            -5.2514415979385376e-01 3.2664495706558228e-01</leafValues></_>
        <_>
          <internalNodes>
            0 -1 144 -6.1565572395920753e-03</internalNodes>
          <leafValues>
            4.2719829082489014e-01 -4.7351554036140442e-01</leafValues></_>
        <_>
          <internalNodes>
            0 -1 170 7.1749062044546008e-04</internalNodes>
          <leafValues>
            -2.8310835361480713e-01 6.4642786979675293e-01</leafValues></_>
        <_>
          <internalNodes>
            0 -1 183 2.0245973020792007e-02</internalNodes>
          <leafValues>
            -4.5787855982780457e-01 3.7319600582122803e-01</leafValues></_>
        <_>
          <internalNodes>
            0 -1 21 2.9542539268732071e-03</internalNodes>
          <leafValues>
            1.8766252696514130e-01 -7.8044801950454712e-01</leafValues></_></weakClassifiers></_>
    <!-- stage 16 -->
    <_>
      <maxWeakCount>9</maxWeakCount>
      <stageThreshold>-2.8968569636344910e-01</stageThreshold>
      <weakClassifiers>
        <_>
          <internalNodes>
            0 -1 39 1.4152941107749939e-01</internalNodes>
          <leafValues>
            5.6329113245010376e-01 -8.2352942228317261e-01</leafValues></_>
        <_>
          <internalNodes>
            0 -1 26 5.2890740334987640e-03</internalNodes>
          <leafValues>
            -1.9842386245727539e-01 7.4903798103332520e-01</leafValues></_>
        <_>
          <internalNodes>
            0 -1 34 -3.8779337774030864e-04</internalNodes>
          <leafValues>
            -5.6981331110000610e-01 3.8035890460014343e-01</leafValues></_>
        <_>
          <internalNodes>
            0 -1 160 8.9754946529865265e-03</internalNodes>
          <leafValues>
            -2.8472027182579041e-01 7.6363265514373779e-01</leafValues></_>
        <_>
          <internalNodes>
            0 -1 124 9.0405866503715515e-03</internalNodes>
          <leafValues>
            -2.2998905181884766e-01 7.8699588775634766e-01</leafValues></_>
        <_>
          <internalNodes>
            0 -1 7 -1.7729666084051132e-02</internalNodes>
          <leafValues>
            3.2584437727928162e-01 -5.7860726118087769e-01</leafValues></_>
        <_>
          <internalNodes>
            0 -1 64 -5.0280448049306870e-03</internalNodes>
          <leafValues>
            7.2066485881805420e-01 -2.2613801062107086e-01</leafValues></_>
        <_>
          <internalNodes>
            0 -1 1 -2.3264626041054726e-02</internalNodes>
          <leafValues>
            -7.9709267616271973e-01 2.2839511930942535e-01</leafValues></_>
        <_>
          <internalNodes>
            0 -1 171 2.7623448520898819e-02</internalNodes>
          <leafValues>
            1.7718377709388733e-01 -8.9477926492691040e-01</leafValues></_></weakClassifiers></_>
    <!-- stage 17 -->
    <_>
      <maxWeakCount>9</maxWeakCount>
      <stageThreshold>-1.7330048978328705e-01</stageThreshold>
      <weakClassifiers>
        <_>
          <internalNodes>
            0 -1 168 -1.6324477270245552e-02</internalNodes>
          <leafValues>
            5.5000001192092896e-01 -8.6666667461395264e-01</leafValues></_>
        <_>
          <internalNodes>
            0 -1 113 8.7603718042373657e-02</internalNodes>
          <leafValues>
            -3.0178165435791016e-01 7.2867715358734131e-01</leafValues></_>
        <_>
          <internalNodes>
            0 -1 10 -4.7611240297555923e-02</internalNodes>
          <leafValues>
            3.5313415527343750e-01 -4.9773663282394409e-01</leafValues></_>
        <_>
          <internalNodes>
            0 -1 55 3.2883149106055498e-03</internalNodes>
          <leafValues>
            -1.9626261293888092e-01 9.1766995191574097e-01</leafValues></_>
        <_>
          <internalNodes>
            0 -1 120 5.5379938567057252e-04</internalNodes>
          <leafValues>
            -2.0385904610157013e-01 8.0900895595550537e-01</leafValues></_>
        <_>
          <internalNodes>
            0 -1 65 1.7322593927383423e-01</internalNodes>
          <leafValues>
            -4.3102654814720154e-01 4.8418366909027100e-01</leafValues></_>
        <_>
          <internalNodes>
            0 -1 66 -1.1275033466517925e-02</internalNodes>
          <leafValues>
            6.6296935081481934e-01 -2.4831488728523254e-01</leafValues></_>
        <_>
          <internalNodes>
            0 -1 163 2.5611747056245804e-02</internalNodes>
          <leafValues>
            -2.7039849758148193e-01 6.4798200130462646e-01</leafValues></_>
        <_>
          <internalNodes>
            0 -1 75 6.1899172142148018e-03</internalNodes>
          <leafValues>
            -1.9494797289371490e-01 8.1043297052383423e-01</leafValues></_></weakClassifiers></_>
    <!-- stage 18 -->
    <_>
      <maxWeakCount>10</maxWeakCount>
      <stageThreshold>-5.7107770442962646e-01</stageThreshold>
      <weakClassifiers>
        <_>
          <internalNodes>
            0 -1 9 -1.1626013554632664e-02</internalNodes>
          <leafValues>
            -5.3846156597137451e-01 5.9731543064117432e-01</leafValues></_>
        <_>
          <internalNodes>
            0 -1 80 6.8662993609905243e-02</internalNodes>
          <leafValues>
            -6.5604126453399658e-01 3.2061162590980530e-01</leafValues></_>
        <_>
          <internalNodes>
            0 -1 154 -1.7769318073987961e-03</internalNodes>
          <leafValues>
            7.4611353874206543e-01 -2.3734706640243530e-01</leafValues></_>
        <_>
          <internalNodes>
            0 -1 41 9.6632298664189875e-05</internalNodes>
          <leafValues>
            2.5084728002548218e-01 -5.8881324529647827e-01</leafValues></_>
        <_>
          <internalNodes>
            0 -1 98 -3.8413484580814838e-03</internalNodes>
          <leafValues>
            7.8193587064743042e-01 -1.9894178211688995e-01</leafValues></_>
        <_>
          <internalNodes>
            0 -1 42 -1.5707741840742528e-04</internalNodes>
          <leafValues>
            -6.1622703075408936e-01 2.5984925031661987e-01</leafValues></_>
        <_>
          <internalNodes>
            0 -1 22 -2.9673915356397629e-02</internalNodes>
          <leafValues>
            2.9334053397178650e-01 -5.2177566289901733e-01</leafValues></_>
        <_>
          <internalNodes>
            0 -1 86 -2.1435371309053153e-05</internalNodes>
          <leafValues>
            4.0995860099792480e-01 -4.5691046118736267e-01</leafValues></_>
        <_>
          <internalNodes>
            0 -1 28 -1.6193322837352753e-02</internalNodes>
          <leafValues>
            -7.2691696882247925e-01 2.5568830966949463e-01</leafValues></_>
        <_>
          <internalNodes>
            0 -1 24 3.5717859864234924e-02</internalNodes>
          <leafValues>
            2.6815387606620789e-01 -5.9172397851943970e-01</leafValues></_></weakClassifiers></_>
    <!-- stage 19 -->
    <_>
      <maxWeakCount>9</maxWeakCount>
      <stageThreshold>-4.9736717343330383e-01</stageThreshold>
      <weakClassifiers>
        <_>
          <internalNodes>
            0 -1 44 -8.5498958826065063e-02</internalNodes>
          <leafValues>
            -6.8750000000000000e-01 5.4088050127029419e-01</leafValues></_>
        <_>
          <internalNodes>
            0 -1 149 1.9343072548508644e-02</internalNodes>
          <leafValues>
            -4.0351295471191406e-01 4.2692983150482178e-01</leafValues></_>
        <_>
          <internalNodes>
            0 -1 46 1.7204240430146456e-04</internalNodes>
          <leafValues>
            2.1138931810855865e-01 -6.7772084474563599e-01</leafValues></_>
        <_>
          <internalNodes>
            0 -1 104 3.3022044226527214e-04</internalNodes>
          <leafValues>
            -2.5609916448593140e-01 6.5885895490646362e-01</leafValues></_>
        <_>
          <internalNodes>
            0 -1 88 -2.3533706553280354e-03</internalNodes>
          <leafValues>
            8.7394738197326660e-01 -1.9067147374153137e-01</leafValues></_>
        <_>
          <internalNodes>
            0 -1 152 -2.3974194191396236e-03</internalNodes>
          <leafValues>
            6.3995844125747681e-01 -2.2521927952766418e-01</leafValues></_>
        <_>
          <internalNodes>
            0 -1 40 -5.9336125850677490e-02</internalNodes>
          <leafValues>
            -7.7612096071243286e-01 2.3899337649345398e-01</leafValues></_>
        <_>
          <internalNodes>
            0 -1 69 1.1646742001175880e-02</internalNodes>
          <leafValues>
            -7.2226458787918091e-01 2.1625879406929016e-01</leafValues></_>
        <_>
          <internalNodes>
            0 -1 32 -9.2193596065044403e-03</internalNodes>
          <leafValues>
            2.7470895648002625e-01 -5.5604058504104614e-01</leafValues></_></weakClassifiers></_>
    <!-- stage 20 -->
    <_>
      <maxWeakCount>9</maxWeakCount>
      <stageThreshold>-3.0311638116836548e-01</stageThreshold>
      <weakClassifiers>
        <_>
          <internalNodes>
            0 -1 56 -1.4619767665863037e-01</internalNodes>
          <leafValues>
            -4.0000000596046448e-01 5.6666666269302368e-01</leafValues></_>
        <_>
          <internalNodes>
            0 -1 114 6.0813641175627708e-03</internalNodes>
          <leafValues>
            -1.8426688015460968e-01 6.8379586935043335e-01</leafValues></_>
        <_>
          <internalNodes>
            0 -1 157 1.0146864224225283e-03</internalNodes>
          <leafValues>
            -2.7534151077270508e-01 4.7027558088302612e-01</leafValues></_>
        <_>
          <internalNodes>
            0 -1 145 -3.2363375066779554e-04</internalNodes>
          <leafValues>
            4.9975481629371643e-01 -2.9374015331268311e-01</leafValues></_>
        <_>
          <internalNodes>
            0 -1 16 -1.6904666554182768e-03</internalNodes>
          <leafValues>
            -4.5975098013877869e-01 3.4930908679962158e-01</leafValues></_>
        <_>
          <internalNodes>
            0 -1 138 4.6055245911702514e-04</internalNodes>
          <leafValues>
            -1.9724768400192261e-01 7.4924671649932861e-01</leafValues></_>
        <_>
          <internalNodes>
            0 -1 53 -4.6187560074031353e-03</internalNodes>
          <leafValues>
            7.8722524642944336e-01 -1.9020035862922668e-01</leafValues></_>
        <_>
          <internalNodes>
            0 -1 95 6.1571388505399227e-04</internalNodes>
          <leafValues>
            2.5029760599136353e-01 -6.8483698368072510e-01</leafValues></_>
        <_>
          <internalNodes>
            0 -1 142 6.7179966717958450e-03</internalNodes>
          <leafValues>
            -2.4595622718334198e-01 6.8734121322631836e-01</leafValues></_></weakClassifiers></_>
    <!-- stage 21 -->
    <_>
      <maxWeakCount>10</maxWeakCount>
      <stageThreshold>-2.3288653790950775e-01</stageThreshold>
      <weakClassifiers>
        <_>
          <internalNodes>
            0 -1 186 3.5208265762776136e-04</internalNodes>
          <leafValues>
            6.3018870353698730e-01 -2.0000000298023224e-01</leafValues></_>
        <_>
          <internalNodes>
            0 -1 79 9.7433790564537048e-02</internalNodes>
          <leafValues>
            -3.3860355615615845e-01 4.6573930978775024e-01</leafValues></_>
        <_>
          <internalNodes>
            0 -1 8 -6.3293829560279846e-02</internalNodes>
          <leafValues>
            2.8669348359107971e-01 -5.2729469537734985e-01</leafValues></_>
        <_>
          <internalNodes>
            0 -1 30 -1.8581594340503216e-03</internalNodes>
          <leafValues>
            3.5917130112648010e-01 -3.9938288927078247e-01</leafValues></_>
        <_>
          <internalNodes>
            0 -1 148 -1.5415839152410626e-03</internalNodes>
          <leafValues>
            7.4845951795578003e-01 -1.8914027512073517e-01</leafValues></_>
        <_>
          <internalNodes>
            0 -1 174 -1.0176829993724823e-02</internalNodes>
          <leafValues>
            -8.5627043247222900e-01 1.7403109371662140e-01</leafValues></_>
        <_>
          <internalNodes>
            0 -1 108 1.4979359693825245e-03</internalNodes>
          <leafValues>
            -1.9540740549564362e-01 8.2479500770568848e-01</leafValues></_>
        <_>
          <internalNodes>
            0 -1 50 -3.5505718551576138e-03</internalNodes>
          <leafValues>
            7.4095904827117920e-01 -1.7629972100257874e-01</leafValues></_>
        <_>
          <internalNodes>
            0 -1 116 6.4355519134551287e-04</internalNodes>
          <leafValues>
            -2.1673423051834106e-01 5.6876605749130249e-01</leafValues></_>
        <_>
          <internalNodes>
            0 -1 5 -8.2031162455677986e-03</internalNodes>
          <leafValues>
            -4.4409784674644470e-01 4.0254181623458862e-01</leafValues></_></weakClassifiers></_>
    <!-- stage 22 -->
    <_>
      <maxWeakCount>9</maxWeakCount>
      <stageThreshold>-4.1649657487869263e-01</stageThreshold>
      <weakClassifiers>
        <_>
          <internalNodes>
            0 -1 130 4.3540380895137787e-02</internalNodes>
          <leafValues>
            -2.5581395626068115e-01 6.5151512622833252e-01</leafValues></_>
        <_>
          <internalNodes>
            0 -1 60 2.3957407101988792e-03</internalNodes>
          <leafValues>
            -1.9683535397052765e-01 6.5265536308288574e-01</leafValues></_>
        <_>
          <internalNodes>
            0 -1 151 -7.7207543654367328e-04</internalNodes>
          <leafValues>
            4.5627769827842712e-01 -3.6116436123847961e-01</leafValues></_>
        <_>
          <internalNodes>
            0 -1 181 -2.4550367146730423e-02</internalNodes>
          <leafValues>
            -8.0740243196487427e-01 1.9132851064205170e-01</leafValues></_>
        <_>
          <internalNodes>
            0 -1 68 1.6549054533243179e-02</internalNodes>
          <leafValues>
            -3.0945223569869995e-01 6.0466343164443970e-01</leafValues></_>
        <_>
          <internalNodes>
            0 -1 155 9.2107253149151802e-03</internalNodes>
          <leafValues>
            -1.9618117809295654e-01 7.6292204856872559e-01</leafValues></_>
        <_>
          <internalNodes>
            0 -1 112 -2.1642982028424740e-04</internalNodes>
          <leafValues>
            -4.7078981995582581e-01 3.4365138411521912e-01</leafValues></_>
        <_>
          <internalNodes>
            0 -1 187 -2.0717861480079591e-04</internalNodes>
          <leafValues>
            -5.6771802902221680e-01 2.7671778202056885e-01</leafValues></_>
        <_>
          <internalNodes>
            0 -1 84 -6.2875514850020409e-03</internalNodes>
          <leafValues>
            -8.1907713413238525e-01 1.7617487907409668e-01</leafValues></_></weakClassifiers></_>
    <!-- stage 23 -->
    <_>
      <maxWeakCount>11</maxWeakCount>
      <stageThreshold>-5.5905735492706299e-01</stageThreshold>
      <weakClassifiers>
        <_>
          <internalNodes>
            0 -1 173 -9.5224576070904732e-03</internalNodes>
          <leafValues>
            -6.1290323734283447e-01 5.2978056669235229e-01</leafValues></_>
        <_>
          <internalNodes>
            0 -1 58 -3.8477419875562191e-03</internalNodes>
          <leafValues>
            6.6846728324890137e-01 -1.8068936467170715e-01</leafValues></_>
        <_>
          <internalNodes>
            0 -1 105 -2.6094410568475723e-03</internalNodes>
          <leafValues>
            7.3636043071746826e-01 -2.2352652251720428e-01</leafValues></_>
        <_>
          <internalNodes>
            0 -1 133 -1.2586502125486732e-03</internalNodes>
          <leafValues>
            5.9149742126464844e-01 -2.3530338704586029e-01</leafValues></_>
        <_>
          <internalNodes>
            0 -1 188 -4.1447748662903905e-04</internalNodes>
          <leafValues>
            -6.8130815029144287e-01 2.3364064097404480e-01</leafValues></_>
        <_>
          <internalNodes>
            0 -1 125 6.8567891139537096e-04</internalNodes>
          <leafValues>
            -2.7918371558189392e-01 6.2383109331130981e-01</leafValues></_>
        <_>
          <internalNodes>
            0 -1 111 -2.1229614503681660e-03</internalNodes>
          <leafValues>
            7.1117991209030151e-01 -2.2221103310585022e-01</leafValues></_>
        <_>
          <internalNodes>
            0 -1 154 -2.2509619593620300e-03</internalNodes>
          <leafValues>
            7.5827109813690186e-01 -1.7897915840148926e-01</leafValues></_>
        <_>
          <internalNodes>
            0 -1 147 3.1766667962074280e-04</internalNodes>
          <leafValues>
            -2.2269956767559052e-01 6.4838331937789917e-01</leafValues></_>
        <_>
          <internalNodes>
            0 -1 101 1.1073206551373005e-03</internalNodes>
          <leafValues>
            -2.4651050567626953e-01 5.9703785181045532e-01</leafValues></_>
        <_>
          <internalNodes>
            0 -1 119 1.1047162115573883e-03</internalNodes>
          <leafValues>
            -3.6914083361625671e-01 4.6662467718124390e-01</leafValues></_></weakClassifiers></_>
    <!-- stage 24 -->
    <_>
      <maxWeakCount>9</maxWeakCount>
      <stageThreshold>-4.0640392899513245e-01</stageThreshold>
      <weakClassifiers>
        <_>
          <internalNodes>
            0 -1 35 -4.1896104812622070e-02</internalNodes>
          <leafValues>
            5.5339807271957397e-01 -5.1219511032104492e-01</leafValues></_>
        <_>
          <internalNodes>
            0 -1 137 3.8972264155745506e-03</internalNodes>
          <leafValues>
            -4.4415313005447388e-01 4.0878105163574219e-01</leafValues></_>
        <_>
          <internalNodes>
            0 -1 54 -2.0408316049724817e-03</internalNodes>
          <leafValues>
            5.2094322443008423e-01 -3.3092534542083740e-01</leafValues></_>
        <_>
          <internalNodes>
            0 -1 127 2.6047523715533316e-04</internalNodes>
          <leafValues>
            -2.2057053446769714e-01 6.0458904504776001e-01</leafValues></_>
        <_>
          <internalNodes>
            0 -1 185 6.2679348047822714e-04</internalNodes>
          <leafValues>
            1.9902935624122620e-01 -6.8888849020004272e-01</leafValues></_>
        <_>
          <internalNodes>
            0 -1 15 -2.6785039808601141e-03</internalNodes>
          <leafValues>
            -7.0369207859039307e-01 1.7046657204627991e-01</leafValues></_>
        <_>
          <internalNodes>
            0 -1 36 -1.6439902537968010e-04</internalNodes>
          <leafValues>
            5.1319086551666260e-01 -2.6873454451560974e-01</leafValues></_>
        <_>
          <internalNodes>
            0 -1 45 -1.6838191077113152e-03</internalNodes>
          <leafValues>
            4.7815945744514465e-01 -3.1303557753562927e-01</leafValues></_>
        <_>
          <internalNodes>
            0 -1 122 2.2946542594581842e-04</internalNodes>
          <leafValues>
            3.3478108048439026e-01 -5.3380417823791504e-01</leafValues></_></weakClassifiers></_></stages>
  <features>
    <_>
      <rects>
        <_>
          0 0 18 21 -1.</_>
        <_>
          9 0 9 21 2.</_></rects>
      <tilted>0</tilted></_>
    <_>
      <rects>
        <_>
          0 2 6 8 -1.</_>
        <_>
          3 2 3 8 2.</_></rects>
      <tilted>0</tilted></_>
    <_>
      <rects>
        <_>
          0 2 14 5 -1.</_>
        <_>
          7 2 7 5 2.</_></rects>
      <tilted>0</tilted></_>
    <_>
      <rects>
        <_>
          0 3 18 4 -1.</_>
        <_>
          6 3 6 4 2.</_></rects>
      <tilted>0</tilted></_>
    <_>
      <rects>
        <_>
          0 3 14 21 -1.</_>
        <_>
          7 3 7 21 2.</_></rects>
      <tilted>0</tilted></_>
    <_>
      <rects>
        <_>
          0 4 1 3 -1.</_>
        <_>
          0 5 1 1 2.</_></rects>
      <tilted>0</tilted></_>
    <_>
      <rects>
        <_>
          0 6 12 18 -1.</_>
        <_>
          6 6 6 18 2.</_></rects>
      <tilted>0</tilted></_>
    <_>
      <rects>
        <_>
          0 7 10 9 -1.</_>
        <_>
          5 7 5 9 2.</_></rects>
      <tilted>0</tilted></_>
    <_>
      <rects>
        <_>
          0 7 12 17 -1.</_>
        <_>
          6 7 6 17 2.</_></rects>
      <tilted>0</tilted></_>
    <_>
      <rects>
        <_>
          0 10 3 1 -1.</_>
        <_>
          1 10 1 1 2.</_></rects>
      <tilted>0</tilted></_>
    <_>
      <rects>
        <_>
          0 10 12 9 -1.</_>
        <_>
          6 10 6 9 2.</_></rects>
      <tilted>0</tilted></_>
    <_>
      <rects>
        <_>
          0 10 14 10 -1.</_>
        <_>
          7 10 7 10 2.</_></rects>
      <tilted>0</tilted></_>
    <_>
      <rects>
        <_>
          0 10 18 8 -1.</_>
        <_>
          9 10 9 8 2.</_></rects>
      <tilted>0</tilted></_>
    <_>
      <rects>
        <_>
          0 11 12 4 -1.</_>
        <_>
          6 11 6 4 2.</_></rects>
      <tilted>0</tilted></_>
    <_>
      <rects>
        <_>
          0 12 2 1 -1.</_>
        <_>
          1 12 1 1 2.</_></rects>
      <tilted>0</tilted></_>
    <_>
      <rects>
        <_>
          0 13 6 2 -1.</_>
        <_>
          0 13 3 1 2.</_>
        <_>
          3 14 3 1 2.</_></rects>
      <tilted>0</tilted></_>
    <_>
      <rects>
        <_>
          0 14 4 4 -1.</_>
        <_>
          2 14 2 4 2.</_></rects>
      <tilted>0</tilted></_>
    <_>
      <rects>
        <_>
          0 16 19 8 -1.</_>
        <_>
          0 20 19 4 2.</_></rects>
      <tilted>0</tilted></_>
    <_>
      <rects>
        <_>
          0 17 2 7 -1.</_>
        <_>
          1 17 1 7 2.</_></rects>
      <tilted>0</tilted></_>
    <_>
      <rects>
        <_>
          0 18 18 6 -1.</_>
        <_>
          0 21 18 3 2.</_></rects>
      <tilted>0</tilted></_>
    <_>
      <rects>
        <_>
          0 22 8 1 -1.</_>
        <_>
          4 22 4 1 2.</_></rects>
      <tilted>0</tilted></_>
    <_>
      <rects>
        <_>
          0 23 10 1 -1.</_>
        <_>
          5 23 5 1 2.</_></rects>
      <tilted>0</tilted></_>
    <_>
      <rects>
        <_>
          1 0 8 20 -1.</_>
        <_>
          5 0 4 20 2.</_></rects>
      <tilted>0</tilted></_>
    <_>
      <rects>
        <_>
          1 0 10 3 -1.</_>
        <_>
          6 0 5 3 2.</_></rects>
      <tilted>0</tilted></_>
    <_>
      <rects>
        <_>
          1 0 22 6 -1.</_>
        <_>
          12 0 11 6 2.</_></rects>
      <tilted>0</tilted></_>
    <_>
      <rects>
        <_>
          1 1 20 4 -1.</_>
        <_>
          11 1 10 4 2.</_></rects>
      <tilted>0</tilted></_>
    <_>
      <rects>
        <_>
          1 2 22 2 -1.</_>
        <_>
          1 3 22 1 2.</_></rects>
      <tilted>0</tilted></_>
    <_>
      <rects>
        <_>
          1 3 4 2 -1.</_>
        <_>
          1 3 2 1 2.</_>
        <_>
          3 4 2 1 2.</_></rects>
      <tilted>0</tilted></_>
    <_>
      <rects>
        <_>
          1 3 22 2 -1.</_>
        <_>
          12 3 11 2 2.</_></rects>
      <tilted>0</tilted></_>
    <_>
      <rects>
        <_>
          1 6 2 18 -1.</_>
        <_>
          1 6 1 9 2.</_>
        <_>
          2 15 1 9 2.</_></rects>
      <tilted>0</tilted></_>
    <_>
      <rects>
        <_>
          1 9 10 4 -1.</_>
        <_>
          1 9 5 2 2.</_>
        <_>
          6 11 5 2 2.</_></rects>
      <tilted>0</tilted></_>
    <_>
      <rects>
        <_>
          1 16 10 8 -1.</_>
        <_>
          6 16 5 8 2.</_></rects>
      <tilted>0</tilted></_>
    <_>
      <rects>
        <_>
          1 20 3 1 -1.</_>
        <_>
          2 20 1 1 2.</_></rects>
      <tilted>0</tilted></_>
    <_>
      <rects>
        <_>
          1 22 3 1 -1.</_>
        <_>
          2 22 1 1 2.</_></rects>
      <tilted>0</tilted></_>
    <_>
      <rects>
        <_>
          1 23 6 1 -1.</_>
        <_>
          4 23 3 1 2.</_></rects>
      <tilted>0</tilted></_>
    <_>
      <rects>
        <_>
          1 23 15 1 -1.</_>
        <_>
          6 23 5 1 2.</_></rects>
      <tilted>0</tilted></_>
    <_>
      <rects>
        <_>
          2 9 2 1 -1.</_>
        <_>
          3 9 1 1 2.</_></rects>
      <tilted>0</tilted></_>
    <_>
      <rects>
        <_>
          2 9 2 14 -1.</_>
        <_>
          2 16 2 7 2.</_></rects>
      <tilted>0</tilted></_>
    <_>
      <rects>
        <_>
          2 12 8 12 -1.</_>
        <_>
          6 12 4 12 2.</_></rects>
      <tilted>0</tilted></_>
    <_>
      <rects>
        <_>
          2 15 22 6 -1.</_>
        <_>
          13 15 11 6 2.</_></rects>
      <tilted>0</tilted></_>
    <_>
      <rects>
        <_>
          2 20 22 4 -1.</_>
        <_>
          13 20 11 4 2.</_></rects>
      <tilted>0</tilted></_>
    <_>
      <rects>
        <_>
          2 22 2 1 -1.</_>
        <_>
          3 22 1 1 2.</_></rects>
      <tilted>0</tilted></_>
    <_>
      <rects>
        <_>
          2 23 2 1 -1.</_>
        <_>
          3 23 1 1 2.</_></rects>
      <tilted>0</tilted></_>
    <_>
      <rects>
        <_>
          2 23 16 1 -1.</_>
        <_>
          10 23 8 1 2.</_></rects>
      <tilted>0</tilted></_>
    <_>
      <rects>
        <_>
          3 0 1 21 -1.</_>
        <_>
          3 7 1 7 2.</_></rects>
      <tilted>0</tilted></_>
    <_>
      <rects>
        <_>
          4 7 8 2 -1.</_>
        <_>
          4 8 8 1 2.</_></rects>
      <tilted>0</tilted></_>
    <_>
      <rects>
        <_>
          4 18 2 3 -1.</_>
        <_>
          5 18 1 3 2.</_></rects>
      <tilted>0</tilted></_>
    <_>
      <rects>
        <_>
          4 18 15 6 -1.</_>
        <_>
          4 21 15 3 2.</_></rects>
      <tilted>0</tilted></_>
    <_>
      <rects>
        <_>
          4 20 19 4 -1.</_>
        <_>
          4 22 19 2 2.</_></rects>
      <tilted>0</tilted></_>
    <_>
      <rects>
        <_>
          4 22 15 2 -1.</_>
        <_>
          4 23 15 1 2.</_></rects>
      <tilted>0</tilted></_>
    <_>
      <rects>
        <_>
          5 1 7 2 -1.</_>
        <_>
          5 2 7 1 2.</_></rects>
      <tilted>0</tilted></_>
    <_>
      <rects>
        <_>
          5 2 3 21 -1.</_>
        <_>
          5 9 3 7 2.</_></rects>
      <tilted>0</tilted></_>
    <_>
      <rects>
        <_>
          5 4 1 2 -1.</_>
        <_>
          5 5 1 1 2.</_></rects>
      <tilted>0</tilted></_>
    <_>
      <rects>
        <_>
          5 7 11 2 -1.</_>
        <_>
          5 8 11 1 2.</_></rects>
      <tilted>0</tilted></_>
    <_>
      <rects>
        <_>
          5 13 4 2 -1.</_>
        <_>
          7 13 2 2 2.</_></rects>
      <tilted>0</tilted></_>
    <_>
      <rects>
        <_>
          5 15 6 2 -1.</_>
        <_>
          8 15 3 2 2.</_></rects>
      <tilted>0</tilted></_>
    <_>
      <rects>
        <_>
          5 18 14 3 -1.</_>
        <_>
          5 19 14 1 2.</_></rects>
      <tilted>0</tilted></_>
    <_>
      <rects>
        <_>
          5 20 8 4 -1.</_>
        <_>
          5 22 8 2 2.</_></rects>
      <tilted>0</tilted></_>
    <_>
      <rects>
        <_>
          6 0 12 2 -1.</_>
        <_>
          6 1 12 1 2.</_></rects>
      <tilted>0</tilted></_>
    <_>
      <rects>
        <_>
          6 1 2 21 -1.</_>
        <_>
          6 8 2 7 2.</_></rects>
      <tilted>0</tilted></_>
    <_>
      <rects>
        <_>
          6 2 8 2 -1.</_>
        <_>
          6 3 8 1 2.</_></rects>
      <tilted>0</tilted></_>
    <_>
      <rects>
        <_>
          6 4 11 2 -1.</_>
        <_>
          6 5 11 1 2.</_></rects>
      <tilted>0</tilted></_>
    <_>
      <rects>
        <_>
          6 12 7 12 -1.</_>
        <_>
          6 18 7 6 2.</_></rects>
      <tilted>0</tilted></_>
    <_>
      <rects>
        <_>
          6 12 8 12 -1.</_>
        <_>
          6 18 8 6 2.</_></rects>
      <tilted>0</tilted></_>
    <_>
      <rects>
        <_>
          6 13 4 8 -1.</_>
        <_>
          6 13 2 4 2.</_>
        <_>
          8 17 2 4 2.</_></rects>
      <tilted>0</tilted></_>
    <_>
      <rects>
        <_>
          6 14 13 10 -1.</_>
        <_>
          6 19 13 5 2.</_></rects>
      <tilted>0</tilted></_>
    <_>
      <rects>
        <_>
          6 15 4 7 -1.</_>
        <_>
          8 15 2 7 2.</_></rects>
      <tilted>0</tilted></_>
    <_>
      <rects>
        <_>
          6 18 18 6 -1.</_>
        <_>
          6 20 18 2 2.</_></rects>
      <tilted>0</tilted></_>
    <_>
      <rects>
        <_>
          6 20 3 4 -1.</_>
        <_>
          6 22 3 2 2.</_></rects>
      <tilted>0</tilted></_>
    <_>
      <rects>
        <_>
          6 20 15 4 -1.</_>
        <_>
          6 22 15 2 2.</_></rects>
      <tilted>0</tilted></_>
    <_>
      <rects>
        <_>
          7 1 2 4 -1.</_>
        <_>
          7 3 2 2 2.</_></rects>
      <tilted>0</tilted></_>
    <_>
      <rects>
        <_>
          7 1 2 21 -1.</_>
        <_>
          7 8 2 7 2.</_></rects>
      <tilted>0</tilted></_>
    <_>
      <rects>
        <_>
          7 1 12 8 -1.</_>
        <_>
          13 1 6 8 2.</_></rects>
      <tilted>0</tilted></_>
    <_>
      <rects>
        <_>
          7 2 9 2 -1.</_>
        <_>
          7 3 9 1 2.</_></rects>
      <tilted>0</tilted></_>
    <_>
      <rects>
        <_>
          7 3 7 2 -1.</_>
        <_>
          7 4 7 1 2.</_></rects>
      <tilted>0</tilted></_>
    <_>
      <rects>
        <_>
          7 7 4 12 -1.</_>
        <_>
          9 7 2 12 2.</_></rects>
      <tilted>0</tilted></_>
    <_>
      <rects>
        <_>
          7 7 12 12 -1.</_>
        <_>
          7 7 6 6 2.</_>
        <_>
          13 13 6 6 2.</_></rects>
      <tilted>0</tilted></_>
    <_>
      <rects>
        <_>
          7 10 5 4 -1.</_>
        <_>
          7 12 5 2 2.</_></rects>
      <tilted>0</tilted></_>
    <_>
      <rects>
        <_>
          7 12 4 10 -1.</_>
        <_>
          9 12 2 10 2.</_></rects>
      <tilted>0</tilted></_>
    <_>
      <rects>
        <_>
          7 12 6 12 -1.</_>
        <_>
          7 18 6 6 2.</_></rects>
      <tilted>0</tilted></_>
    <_>
      <rects>
        <_>
          7 14 10 10 -1.</_>
        <_>
          7 19 10 5 2.</_></rects>
      <tilted>0</tilted></_>
    <_>
      <rects>
        <_>
          7 15 4 3 -1.</_>
        <_>
          9 15 2 3 2.</_></rects>
      <tilted>0</tilted></_>
    <_>
      <rects>
        <_>
          7 16 6 5 -1.</_>
        <_>
          9 16 2 5 2.</_></rects>
      <tilted>0</tilted></_>
    <_>
      <rects>
        <_>
          7 22 15 2 -1.</_>
        <_>
          7 23 15 1 2.</_></rects>
      <tilted>0</tilted></_>
    <_>
      <rects>
        <_>
          8 1 8 2 -1.</_>
        <_>
          12 1 4 2 2.</_></rects>
      <tilted>0</tilted></_>
    <_>
      <rects>
        <_>
          8 1 12 4 -1.</_>
        <_>
          8 3 12 2 2.</_></rects>
      <tilted>0</tilted></_>
    <_>
      <rects>
        <_>
          8 5 2 4 -1.</_>
        <_>
          9 5 1 4 2.</_></rects>
      <tilted>0</tilted></_>
    <_>
      <rects>
        <_>
          8 5 2 12 -1.</_>
        <_>
          8 11 2 6 2.</_></rects>
      <tilted>0</tilted></_>
    <_>
      <rects>
        <_>
          8 5 3 2 -1.</_>
        <_>
          8 6 3 1 2.</_></rects>
      <tilted>0</tilted></_>
    <_>
      <rects>
        <_>
          8 10 9 2 -1.</_>
        <_>
          11 10 3 2 2.</_></rects>
      <tilted>0</tilted></_>
    <_>
      <rects>
        <_>
          8 12 6 1 -1.</_>
        <_>
          10 12 2 1 2.</_></rects>
      <tilted>0</tilted></_>
    <_>
      <rects>
        <_>
          8 12 6 2 -1.</_>
        <_>
          10 12 2 2 2.</_></rects>
      <tilted>0</tilted></_>
    <_>
      <rects>
        <_>
          8 13 2 9 -1.</_>
        <_>
          9 13 1 9 2.</_></rects>
      <tilted>0</tilted></_>
    <_>
      <rects>
        <_>
          8 14 9 3 -1.</_>
        <_>
          8 15 9 1 2.</_></rects>
      <tilted>0</tilted></_>
    <_>
      <rects>
        <_>
          8 18 11 6 -1.</_>
        <_>
          8 21 11 3 2.</_></rects>
      <tilted>0</tilted></_>
    <_>
      <rects>
        <_>
          8 23 4 1 -1.</_>
        <_>
          10 23 2 1 2.</_></rects>
      <tilted>0</tilted></_>
    <_>
      <rects>
        <_>
          9 0 1 2 -1.</_>
        <_>
          9 1 1 1 2.</_></rects>
      <tilted>0</tilted></_>
    <_>
      <rects>
        <_>
          9 0 12 2 -1.</_>
        <_>
          9 1 12 1 2.</_></rects>
      <tilted>0</tilted></_>
    <_>
      <rects>
        <_>
          9 4 5 2 -1.</_>
        <_>
          9 5 5 1 2.</_></rects>
      <tilted>0</tilted></_>
    <_>
      <rects>
        <_>
          9 5 3 2 -1.</_>
        <_>
          9 6 3 1 2.</_></rects>
      <tilted>0</tilted></_>
    <_>
      <rects>
        <_>
          9 5 6 2 -1.</_>
        <_>
          9 5 3 1 2.</_>
        <_>
          12 6 3 1 2.</_></rects>
      <tilted>0</tilted></_>
    <_>
      <rects>
        <_>
          9 6 4 2 -1.</_>
        <_>
          9 7 4 1 2.</_></rects>
      <tilted>0</tilted></_>
    <_>
      <rects>
        <_>
          9 12 4 4 -1.</_>
        <_>
          9 14 4 2 2.</_></rects>
      <tilted>0</tilted></_>
    <_>
      <rects>
        <_>
          10 5 1 2 -1.</_>
        <_>
          10 6 1 1 2.</_></rects>
      <tilted>0</tilted></_>
    <_>
      <rects>
        <_>
          10 7 2 2 -1.</_>
        <_>
          10 7 1 1 2.</_>
        <_>
          11 8 1 1 2.</_></rects>
      <tilted>0</tilted></_>
    <_>
      <rects>
        <_>
          10 7 4 4 -1.</_>
        <_>
          10 7 2 2 2.</_>
        <_>
          12 9 2 2 2.</_></rects>
      <tilted>0</tilted></_>
    <_>
      <rects>
        <_>
          10 8 4 15 -1.</_>
        <_>
          12 8 2 15 2.</_></rects>
      <tilted>0</tilted></_>
    <_>
      <rects>
        <_>
          10 8 3 6 -1.</_>
        <_>
          10 11 3 3 2.</_></rects>
      <tilted>0</tilted></_>
    <_>
      <rects>
        <_>
          10 10 4 2 -1.</_>
        <_>
          10 11 4 1 2.</_></rects>
      <tilted>0</tilted></_>
    <_>
      <rects>
        <_>
          10 14 2 6 -1.</_>
        <_>
          11 14 1 6 2.</_></rects>
      <tilted>0</tilted></_>
    <_>
      <rects>
        <_>
          10 17 2 2 -1.</_>
        <_>
          11 17 1 2 2.</_></rects>
      <tilted>0</tilted></_>
    <_>
      <rects>
        <_>
          10 17 4 4 -1.</_>
        <_>
          10 17 2 2 2.</_>
        <_>
          12 19 2 2 2.</_></rects>
      <tilted>0</tilted></_>
    <_>
      <rects>
        <_>
          10 23 4 1 -1.</_>
        <_>
          12 23 2 1 2.</_></rects>
      <tilted>0</tilted></_>
    <_>
      <rects>
        <_>
          11 1 12 16 -1.</_>
        <_>
          17 1 6 16 2.</_></rects>
      <tilted>0</tilted></_>
    <_>
      <rects>
        <_>
          11 1 10 4 -1.</_>
        <_>
          11 3 10 2 2.</_></rects>
      <tilted>0</tilted></_>
    <_>
      <rects>
        <_>
          11 5 4 12 -1.</_>
        <_>
          11 9 4 4 2.</_></rects>
      <tilted>0</tilted></_>
    <_>
      <rects>
        <_>
          11 7 4 2 -1.</_>
        <_>
          11 7 2 1 2.</_>
        <_>
          13 8 2 1 2.</_></rects>
      <tilted>0</tilted></_>
    <_>
      <rects>
        <_>
          11 8 2 16 -1.</_>
        <_>
          11 8 1 8 2.</_>
        <_>
          12 16 1 8 2.</_></rects>
      <tilted>0</tilted></_>
    <_>
      <rects>
        <_>
          11 9 2 2 -1.</_>
        <_>
          11 10 2 1 2.</_></rects>
      <tilted>0</tilted></_>
    <_>
      <rects>
        <_>
          11 9 6 8 -1.</_>
        <_>
          11 9 3 4 2.</_>
        <_>
          14 13 3 4 2.</_></rects>
      <tilted>0</tilted></_>
    <_>
      <rects>
        <_>
          11 10 5 2 -1.</_>
        <_>
          11 11 5 1 2.</_></rects>
      <tilted>0</tilted></_>
    <_>
      <rects>
        <_>
          11 17 6 5 -1.</_>
        <_>
          14 17 3 5 2.</_></rects>
      <tilted>0</tilted></_>
    <_>
      <rects>
        <_>
          11 21 2 2 -1.</_>
        <_>
          11 21 1 1 2.</_>
        <_>
          12 22 1 1 2.</_></rects>
      <tilted>0</tilted></_>
    <_>
      <rects>
        <_>
          11 21 13 3 -1.</_>
        <_>
          11 22 13 1 2.</_></rects>
      <tilted>0</tilted></_>
    <_>
      <rects>
        <_>
          11 22 11 2 -1.</_>
        <_>
          11 23 11 1 2.</_></rects>
      <tilted>0</tilted></_>
    <_>
      <rects>
        <_>
          12 1 6 2 -1.</_>
        <_>
          12 1 3 1 2.</_>
        <_>
          15 2 3 1 2.</_></rects>
      <tilted>0</tilted></_>
    <_>
      <rects>
        <_>
          12 1 12 23 -1.</_>
        <_>
          18 1 6 23 2.</_></rects>
      <tilted>0</tilted></_>
    <_>
      <rects>
        <_>
          12 4 2 2 -1.</_>
        <_>
          12 4 1 1 2.</_>
        <_>
          13 5 1 1 2.</_></rects>
      <tilted>0</tilted></_>
    <_>
      <rects>
        <_>
          12 9 12 7 -1.</_>
        <_>
          18 9 6 7 2.</_></rects>
      <tilted>0</tilted></_>
    <_>
      <rects>
        <_>
          12 11 12 3 -1.</_>
        <_>
          18 11 6 3 2.</_></rects>
      <tilted>0</tilted></_>
    <_>
      <rects>
        <_>
          12 12 12 11 -1.</_>
        <_>
          18 12 6 11 2.</_></rects>
      <tilted>0</tilted></_>
    <_>
      <rects>
        <_>
          12 12 12 12 -1.</_>
        <_>
          18 12 6 12 2.</_></rects>
      <tilted>0</tilted></_>
    <_>
      <rects>
        <_>
          12 13 12 4 -1.</_>
        <_>
          18 13 6 4 2.</_></rects>
      <tilted>0</tilted></_>
    <_>
      <rects>
        <_>
          12 15 6 2 -1.</_>
        <_>
          12 15 3 1 2.</_>
        <_>
          15 16 3 1 2.</_></rects>
      <tilted>0</tilted></_>
    <_>
      <rects>
        <_>
          13 0 5 2 -1.</_>
        <_>
          13 1 5 1 2.</_></rects>
      <tilted>0</tilted></_>
    <_>
      <rects>
        <_>
          13 2 2 2 -1.</_>
        <_>
          13 3 2 1 2.</_></rects>
      <tilted>0</tilted></_>
    <_>
      <rects>
        <_>
          13 3 10 15 -1.</_>
        <_>
          18 3 5 15 2.</_></rects>
      <tilted>0</tilted></_>
    <_>
      <rects>
        <_>
          13 6 8 10 -1.</_>
        <_>
          13 6 4 5 2.</_>
        <_>
          17 11 4 5 2.</_></rects>
      <tilted>0</tilted></_>
    <_>
      <rects>
        <_>
          13 7 1 2 -1.</_>
        <_>
          13 8 1 1 2.</_></rects>
      <tilted>0</tilted></_>
    <_>
      <rects>
        <_>
          13 10 4 2 -1.</_>
        <_>
          13 10 2 1 2.</_>
        <_>
          15 11 2 1 2.</_></rects>
      <tilted>0</tilted></_>
    <_>
      <rects>
        <_>
          13 14 8 1 -1.</_>
        <_>
          17 14 4 1 2.</_></rects>
      <tilted>0</tilted></_>
    <_>
      <rects>
        <_>
          13 16 6 2 -1.</_>
        <_>
          16 16 3 2 2.</_></rects>
      <tilted>0</tilted></_>
    <_>
      <rects>
        <_>
          13 22 5 2 -1.</_>
        <_>
          13 23 5 1 2.</_></rects>
      <tilted>0</tilted></_>
    <_>
      <rects>
        <_>
          14 0 1 20 -1.</_>
        <_>
          14 10 1 10 2.</_></rects>
      <tilted>0</tilted></_>
    <_>
      <rects>
        <_>
          14 2 2 16 -1.</_>
        <_>
          14 10 2 8 2.</_></rects>
      <tilted>0</tilted></_>
    <_>
      <rects>
        <_>
          14 5 2 2 -1.</_>
        <_>
          14 6 2 1 2.</_></rects>
      <tilted>0</tilted></_>
    <_>
      <rects>
        <_>
          14 5 10 18 -1.</_>
        <_>
          19 5 5 18 2.</_></rects>
      <tilted>0</tilted></_>
    <_>
      <rects>
        <_>
          14 7 2 2 -1.</_>
        <_>
          14 7 1 1 2.</_>
        <_>
          15 8 1 1 2.</_></rects>
      <tilted>0</tilted></_>
    <_>
      <rects>
        <_>
          14 7 2 7 -1.</_>
        <_>
          15 7 1 7 2.</_></rects>
      <tilted>0</tilted></_>
    <_>
      <rects>
        <_>
          14 7 10 8 -1.</_>
        <_>
          19 7 5 8 2.</_></rects>
      <tilted>0</tilted></_>
    <_>
      <rects>
        <_>
          14 9 8 6 -1.</_>
        <_>
          18 9 4 6 2.</_></rects>
      <tilted>0</tilted></_>
    <_>
      <rects>
        <_>
          14 15 4 4 -1.</_>
        <_>
          14 15 2 2 2.</_>
        <_>
          16 17 2 2 2.</_></rects>
      <tilted>0</tilted></_>
    <_>
      <rects>
        <_>
          14 16 4 8 -1.</_>
        <_>
          16 16 2 8 2.</_></rects>
      <tilted>0</tilted></_>
    <_>
      <rects>
        <_>
          14 16 10 6 -1.</_>
        <_>
          19 16 5 6 2.</_></rects>
      <tilted>0</tilted></_>
    <_>
      <rects>
        <_>
          14 18 2 4 -1.</_>
        <_>
          15 18 1 4 2.</_></rects>
      <tilted>0</tilted></_>
    <_>
      <rects>
        <_>
          14 18 4 3 -1.</_>
        <_>
          16 18 2 3 2.</_></rects>
      <tilted>0</tilted></_>
    <_>
      <rects>
        <_>
          14 18 6 6 -1.</_>
        <_>
          17 18 3 6 2.</_></rects>
      <tilted>0</tilted></_>
    <_>
      <rects>
        <_>
          14 19 2 2 -1.</_>
        <_>
          14 20 2 1 2.</_></rects>
      <tilted>0</tilted></_>
    <_>
      <rects>
        <_>
          15 1 8 11 -1.</_>
        <_>
          19 1 4 11 2.</_></rects>
      <tilted>0</tilted></_>
    <_>
      <rects>
        <_>
          15 16 9 8 -1.</_>
        <_>
          15 20 9 4 2.</_></rects>
      <tilted>0</tilted></_>
    <_>
      <rects>
        <_>
          15 17 1 6 -1.</_>
        <_>
          15 20 1 3 2.</_></rects>
      <tilted>0</tilted></_>
    <_>
      <rects>
        <_>
          15 17 2 5 -1.</_>
        <_>
          16 17 1 5 2.</_></rects>
      <tilted>0</tilted></_>
    <_>
      <rects>
        <_>
          15 17 8 2 -1.</_>
        <_>
          15 17 4 1 2.</_>
        <_>
          19 18 4 1 2.</_></rects>
      <tilted>0</tilted></_>
    <_>
      <rects>
        <_>
          16 1 4 22 -1.</_>
        <_>
          18 1 2 22 2.</_></rects>
      <tilted>0</tilted></_>
    <_>
      <rects>
        <_>
          16 5 7 16 -1.</_>
        <_>
          16 13 7 8 2.</_></rects>
      <tilted>0</tilted></_>
    <_>
      <rects>
        <_>
          16 6 1 2 -1.</_>
        <_>
          16 7 1 1 2.</_></rects>
      <tilted>0</tilted></_>
    <_>
      <rects>
        <_>
          16 12 6 2 -1.</_>
        <_>
          16 12 3 1 2.</_>
        <_>
          19 13 3 1 2.</_></rects>
      <tilted>0</tilted></_>
    <_>
      <rects>
        <_>
          16 15 8 8 -1.</_>
        <_>
          20 15 4 8 2.</_></rects>
      <tilted>0</tilted></_>
    <_>
      <rects>
        <_>
          16 19 3 3 -1.</_>
        <_>
          17 19 1 3 2.</_></rects>
      <tilted>0</tilted></_>
    <_>
      <rects>
        <_>
          17 2 2 9 -1.</_>
        <_>
          18 2 1 9 2.</_></rects>
      <tilted>0</tilted></_>
    <_>
      <rects>
        <_>
          17 4 3 2 -1.</_>
        <_>
          17 5 3 1 2.</_></rects>
      <tilted>0</tilted></_>
    <_>
      <rects>
        <_>
          18 2 6 10 -1.</_>
        <_>
          21 2 3 10 2.</_></rects>
      <tilted>0</tilted></_>
    <_>
      <rects>
        <_>
          18 23 6 1 -1.</_>
        <_>
          20 23 2 1 2.</_></rects>
      <tilted>0</tilted></_>
    <_>
      <rects>
        <_>
          19 0 1 12 -1.</_>
        <_>
          19 6 1 6 2.</_></rects>
      <tilted>0</tilted></_>
    <_>
      <rects>
        <_>
          20 5 4 9 -1.</_>
        <_>
          22 5 2 9 2.</_></rects>
      <tilted>0</tilted></_>
    <_>
      <rects>
        <_>
          20 10 2 8 -1.</_>
        <_>
          20 10 1 4 2.</_>
        <_>
          21 14 1 4 2.</_></rects>
      <tilted>0</tilted></_>
    <_>
      <rects>
        <_>
          20 10 4 12 -1.</_>
        <_>
          20 10 2 6 2.</_>
        <_>
          22 16 2 6 2.</_></rects>
      <tilted>0</tilted></_>
    <_>
      <rects>
        <_>
          20 23 4 1 -1.</_>
        <_>
          22 23 2 1 2.</_></rects>
      <tilted>0</tilted></_>
    <_>
      <rects>
        <_>
          21 4 2 20 -1.</_>
        <_>
          21 14 2 10 2.</_></rects>
      <tilted>0</tilted></_>
    <_>
      <rects>
        <_>
          21 10 3 14 -1.</_>
        <_>
          21 17 3 7 2.</_></rects>
      <tilted>0</tilted></_>
    <_>
      <rects>
        <_>
          21 17 2 1 -1.</_>
        <_>
          22 17 1 1 2.</_></rects>
      <tilted>0</tilted></_>
    <_>
      <rects>
        <_>
          21 17 3 2 -1.</_>
        <_>
          22 17 1 2 2.</_></rects>
      <tilted>0</tilted></_>
    <_>
      <rects>
        <_>
          21 18 2 6 -1.</_>
        <_>
          22 18 1 6 2.</_></rects>
      <tilted>0</tilted></_>
    <_>
      <rects>
        <_>
          22 3 2 20 -1.</_>
        <_>
          22 13 2 10 2.</_></rects>
      <tilted>0</tilted></_>
    <_>
      <rects>
        <_>
          22 11 2 10 -1.</_>
        <_>
          23 11 1 10 2.</_></rects>
      <tilted>0</tilted></_>
    <_>
      <rects>
        <_>
          22 14 2 4 -1.</_>
        <_>
          22 14 1 2 2.</_>
        <_>
          23 16 1 2 2.</_></rects>
      <tilted>0</tilted></_>
    <_>
      <rects>
        <_>
          22 15 2 2 -1.</_>
        <_>
          23 15 1 2 2.</_></rects>
      <tilted>0</tilted></_>
    <_>
      <rects>
        <_>
          22 15 2 4 -1.</_>
        <_>
          23 15 1 4 2.</_></rects>
      <tilted>0</tilted></_>
    <_>
      <rects>
        <_>
          22 17 2 3 -1.</_>
        <_>
          23 17 1 3 2.</_></rects>
      <tilted>0</tilted></_>
    <_>
      <rects>
        <_>
          22 23 2 1 -1.</_>
        <_>
          23 23 1 1 2.</_></rects>
      <tilted>0</tilted></_>
    <_>
      <rects>
        <_>
          23 0 1 24 -1.</_>
        <_>
          23 12 1 12 2.</_></rects>
      <tilted>0</tilted></_>
    <_>
      <rects>
        <_>
          23 10 1 14 -1.</_>
        <_>
          23 17 1 7 2.</_></rects>
      <tilted>0</tilted></_>
    <_>
      <rects>
        <_>
          23 20 1 3 -1.</_>
        <_>
          23 21 1 1 2.</_></rects>
      <tilted>0</tilted></_></features></cascade>
</opencv_storage>
