<?xml version="1.0"?>
<opencv_storage>
<stage22>
  <maxWeakCount>9</maxWeakCount>
  <stageThreshold>-4.1649657487869263e-01</stageThreshold>
  <weakClassifiers>
    <_>
      <internalNodes>
        0 -1 126562 4.3540380895137787e-02</internalNodes>
      <leafValues>
        -2.5581395626068115e-01 6.5151512622833252e-01</leafValues></_>
    <_>
      <internalNodes>
        0 -1 72802 2.3957407101988792e-03</internalNodes>
      <leafValues>
        -1.9683535397052765e-01 6.5265536308288574e-01</leafValues></_>
    <_>
      <internalNodes>
        0 -1 138494 -7.7207543654367328e-04</internalNodes>
      <leafValues>
        4.5627769827842712e-01 -3.6116436123847961e-01</leafValues></_>
    <_>
      <internalNodes>
        0 -1 161066 -2.4550367146730423e-02</internalNodes>
      <leafValues>
        -8.0740243196487427e-01 1.9132851064205170e-01</leafValues></_>
    <_>
      <internalNodes>
        0 -1 80498 1.6549054533243179e-02</internalNodes>
      <leafValues>
        -3.0945223569869995e-01 6.0466343164443970e-01</leafValues></_>
    <_>
      <internalNodes>
        0 -1 138913 9.2107253149151802e-03</internalNodes>
      <leafValues>
        -1.9618117809295654e-01 7.6292204856872559e-01</leafValues></_>
    <_>
      <internalNodes>
        0 -1 114403 -2.1642982028424740e-04</internalNodes>
      <leafValues>
        -4.7078981995582581e-01 3.4365138411521912e-01</leafValues></_>
    <_>
      <internalNodes>
        0 -1 161983 -2.0717861480079591e-04</internalNodes>
      <leafValues>
        -5.6771802902221680e-01 2.7671778202056885e-01</leafValues></_>
    <_>
      <internalNodes>
        0 -1 90782 -6.2875514850020409e-03</internalNodes>
      <leafValues>
        -8.1907713413238525e-01 1.7617487907409668e-01</leafValues></_></weakClassifiers></stage22>
</opencv_storage>
