<?xml version="1.0"?>
<opencv_storage>
<stage3>
  <maxWeakCount>7</maxWeakCount>
  <stageThreshold>-2.8179982304573059e-01</stageThreshold>
  <weakClassifiers>
    <_>
      <internalNodes>
        0 -1 12201 8.5535824298858643e-02</internalNodes>
      <leafValues>
        -3.5779815912246704e-01 7.8423237800598145e-01</leafValues></_>
    <_>
      <internalNodes>
        0 -1 692 3.8563974201679230e-02</internalNodes>
      <leafValues>
        4.1085320711135864e-01 -8.7553840875625610e-01</leafValues></_>
    <_>
      <internalNodes>
        0 -1 126563 5.2330218255519867e-02</internalNodes>
      <leafValues>
        -5.6815105676651001e-01 4.3513607978820801e-01</leafValues></_>
    <_>
      <internalNodes>
        0 -1 60256 2.5254864245653152e-02</internalNodes>
      <leafValues>
        -5.0001335144042969e-01 4.7905993461608887e-01</leafValues></_>
    <_>
      <internalNodes>
        0 -1 37976 3.3056533429771662e-03</internalNodes>
      <leafValues>
        3.1386902928352356e-01 -6.9119375944137573e-01</leafValues></_>
    <_>
      <internalNodes>
        0 -1 139894 -4.9126576632261276e-03</internalNodes>
      <leafValues>
        -7.4543845653533936e-01 2.7468419075012207e-01</leafValues></_>
    <_>
      <internalNodes>
        0 -1 162331 -8.5298717021942139e-03</internalNodes>
      <leafValues>
        3.3016672730445862e-01 -6.6719466447830200e-01</leafValues></_></weakClassifiers></stage3>
</opencv_storage>
